digraph Tree {
node [shape=box, style="filled, rounded", color="black", fontname=helvetica] ;
edge [fontname=helvetica] ;
0 [label="petal length (cm) <= 2.45\ngini = 0.66\nsamples = 95\nvalue = [40, 58, 52]\nclass = versicolor", fillcolor="#f3fdf7"] ;
1 [label="gini = 0.0\nsamples = 25\nvalue = [40, 0, 0]\nclass = setosa", fillcolor="#e58139"] ;
0 -> 1 [labeldistance=2.5, labelangle=45, headlabel="True"] ;
2 [label="petal length (cm) <= 4.75\ngini = 0.5\nsamples = 70\nvalue = [0, 58, 52]\nclass = versicolor", fillcolor="#ebfcf2"] ;
0 -> 2 [labeldistance=2.5, labelangle=-45, headlabel="False"] ;
3 [label="petal width (cm) <= 1.65\ngini = 0.04\nsamples = 31\nvalue = [0, 52, 1]\nclass = versicolor", fillcolor="#3de683"] ;
2 -> 3 ;
4 [label="gini = 0.0\nsamples = 30\nvalue = [0, 52, 0]\nclass = versicolor", fillcolor="#39e581"] ;
3 -> 4 ;
5 [label="gini = 0.0\nsamples = 1\nvalue = [0, 0, 1]\nclass = virginica", fillcolor="#8139e5"] ;
3 -> 5 ;
6 [label="sepal length (cm) <= 6.05\ngini = 0.19\nsamples = 39\nvalue = [0, 6, 51]\nclass = virginica", fillcolor="#9050e8"] ;
2 -> 6 ;
7 [label="petal width (cm) <= 1.7\ngini = 0.49\nsamples = 5\nvalue = [0, 3, 4]\nclass = virginica", fillcolor="#e0cef8"] ;
6 -> 7 ;
8 [label="gini = 0.0\nsamples = 1\nvalue = [0, 2, 0]\nclass = versicolor", fillcolor="#39e581"] ;
7 -> 8 ;
9 [label="petal width (cm) <= 1.9\ngini = 0.32\nsamples = 4\nvalue = [0, 1, 4]\nclass = virginica", fillcolor="#a06aec"] ;
7 -> 9 ;
10 [label="sepal length (cm) <= 5.95\ngini = 0.44\nsamples = 2\nvalue = [0, 1, 2]\nclass = virginica", fillcolor="#c09cf2"] ;
9 -> 10 ;
11 [label="gini = 0.0\nsamples = 1\nvalue = [0, 1, 0]\nclass = versicolor", fillcolor="#39e581"] ;
10 -> 11 ;
12 [label="gini = 0.0\nsamples = 1\nvalue = [0, 0, 2]\nclass = virginica", fillcolor="#8139e5"] ;
10 -> 12 ;
13 [label="gini = 0.0\nsamples = 2\nvalue = [0, 0, 2]\nclass = virginica", fillcolor="#8139e5"] ;
9 -> 13 ;
14 [label="petal width (cm) <= 1.75\ngini = 0.11\nsamples = 34\nvalue = [0, 3, 47]\nclass = virginica", fillcolor="#8946e7"] ;
6 -> 14 ;
15 [label="sepal length (cm) <= 6.5\ngini = 0.47\nsamples = 6\nvalue = [0, 3, 5]\nclass = virginica", fillcolor="#cdb0f5"] ;
14 -> 15 ;
16 [label="gini = 0.0\nsamples = 2\nvalue = [0, 0, 4]\nclass = virginica", fillcolor="#8139e5"] ;
15 -> 16 ;
17 [label="sepal length (cm) <= 7.05\ngini = 0.38\nsamples = 4\nvalue = [0, 3, 1]\nclass = versicolor", fillcolor="#7beeab"] ;
15 -> 17 ;
18 [label="gini = 0.0\nsamples = 3\nvalue = [0, 3, 0]\nclass = versicolor", fillcolor="#39e581"] ;
17 -> 18 ;
19 [label="gini = 0.0\nsamples = 1\nvalue = [0, 0, 1]\nclass = virginica", fillcolor="#8139e5"] ;
17 -> 19 ;
20 [label="gini = 0.0\nsamples = 28\nvalue = [0, 0, 42]\nclass = virginica", fillcolor="#8139e5"] ;
14 -> 20 ;
}